svm_type c_svc
kernel_type rbf
gamma 0.03125
nr_class 2
total_sv 11
rho 4.533821173345963
label 1 0
nr_sv 4 7
SV
14.463331168490653 1:-1 2:-1 3:-0.99964 4:-0.891547 5:-0.999177 9:-1 10:-1 11:-0.971189 12:-0.997163 13:-0.974359 14:-0.824658 15:-0.873606 16:-1 17:-1 
1663.1408636724207 1:-1 2:-1 3:-0.997263 4:-0.887294 5:-0.999671 9:-1 10:-1 11:-0.971189 12:-0.946099 13:-0.641026 14:-0.958904 15:-1 16:-0.997886 17:-0.98939 
1820.4715735144496 1:-1 2:-1 3:-0.999459 4:-0.885167 5:-0.999671 9:-1 10:-1 11:-0.971189 12:-0.968794 13:-0.769231 14:-0.969863 15:-1 16:-1 17:-1 
8.2013217617929666 1:-1 2:-1 3:-0.999158 4:-0.885167 5:-0.999835 9:-1 10:-1 11:-0.971189 12:0.634043 13:-0.923077 14:-0.989041 15:-1 16:-1 17:-0.992927 
-199.72408953349102 1:-1 2:-1 3:-0.999922 4:-0.994684 5:-0.992926 9:-1 10:-0.974843 11:-0.971189 12:-0.73617 13:-0.794872 14:-0.994521 15:-1 16:-1 17:-1 
-2.2898247799075846 1:-1 2:1 3:-0.999853 4:-0.933014 5:-0.891256 9:-1 10:-0.865828 11:-0.971189 12:-0.968794 13:-0.666667 14:-0.0493151 15:-0.903346 16:-0.999866 17:-0.962865 
-624.08093631343331 1:-1 2:-1 3:-0.999632 4:-0.84051 5:-0.738587 9:-1 10:-0.987421 11:-0.971189 12:-0.934752 13:-0.820513 14:-0.994521 15:-1 16:-0.999968 17:-0.998232 
-171.18230384169763 1:-1 2:-1 3:-1 4:-1 5:-1 9:-1 10:-1 11:-0.971189 12:-0.994326 14:-0.994521 15:-1 16:-0.999859 17:-0.996463 
-116.22055119614951 1:-1 2:-1 3:-1 4:-0.997873 5:-0.999835 9:-1 10:-1 11:-0.967166 12:-0.991489 13:-0.871795 14:-0.789041 15:-1 16:-0.990662 17:-0.906278 
-2048 1:-1 2:-1 3:-0.998947 4:-0.99362 5:-0.998519 9:-1 10:-1 11:-0.971189 12:-0.977305 13:-0.74359 14:-0.972603 15:-1 16:-0.997181 17:-0.984085 
-344.77938445247383 1:-1 2:-1 3:-1 4:-0.994684 5:-0.999342 9:-1 10:-1 11:-0.909299 12:-0.965957 13:-0.564103 14:-0.956164 15:-1 16:-1 17:-0.977011 
