svm_type c_svc
kernel_type rbf
gamma 0.03125
nr_class 2
total_sv 12
rho 1.272685925535826
label 1 0
nr_sv 3 9
SV
3859.0014582720328 1:-1 2:-1 3:-0.999579 4:-0.985866 5:-0.999506 9:-1 10:-1 11:-0.971189 12:-0.996479 13:-0.996825 14:-0.974945 15:-0.932124 16:-1 17:-1 
2364.3624059259932 1:-1 2:-1 3:-1 4:-1 5:-1 9:-1 10:-1 11:-0.968095 12:-0.964789 13:-0.968254 14:-0.950288 15:-0.931452 16:-0.99815 17:-0.888594 
296.03185378286071 1:1 2:-1 3:-1 4:-1 5:-1 9:-0.959184 10:-1 11:-0.971189 12:-0.975352 13:-0.974603 14:-0.959435 15:-0.929435 16:-1 17:-1 
-0.41899397091444102 1:-1 2:-1 3:1 4:-0.992933 5:-0.994736 9:-1 10:-1 11:-0.971189 12:-1 13:-1 14:-1 15:-1 16:-1 17:-1 
-259.65137117540411 1:1 2:-1 3:-0.999924 4:-0.9947 5:-0.996545 9:-1 10:-0.995807 11:-0.971189 12:-0.985915 13:-0.996825 14:-0.999205 15:-1 16:-1 17:-1 
-19.026781871740884 1:-1 2:-1 3:-0.997602 4:-0.0706714 5:-0.0790491 9:-1 10:-1 11:-0.971189 12:-0.978873 13:-0.984127 14:-0.999602 15:-1 16:-0.999975 17:-0.994695 
-3.7593143661991006 1:-1 2:1 3:-0.999853 4:-0.888693 5:-0.891256 9:-1 10:-0.865828 11:-0.971189 12:-0.961268 13:-0.95873 14:-0.862 15:-0.991263 16:-0.999866 17:-0.962865 
-3124.2317665148107 1:-1 2:-1 3:-1 4:-1 5:-1 9:-1 10:-1 11:-0.971189 12:-0.978873 13:-0.987302 14:-0.991251 15:-1 16:-1 17:-1 
-36.01296274446419 1:1 2:-1 3:-0.999918 4:-0.902827 5:-0.90524 9:-1 10:-0.798742 11:-0.971189 12:-0.964789 13:-0.990476 14:-0.981308 15:-1 16:-1 17:-1 
-0.34168726455126203 1:-1 2:-1 3:-1 4:-1 5:-1 9:-1 10:-1 11:-0.971189 12:-0.985915 13:-0.761905 14:-0.998012 15:-1 16:-1 17:-1 
-3043.7330901844921 1:-1 2:-1 3:-1 4:-0.996466 5:-0.999835 9:-1 10:-1 11:-0.967166 12:-0.989437 13:-0.984127 14:-0.969378 15:-1 16:-0.990662 17:-0.906278 
-32.219749888310304 1:-1 2:-1 3:-1 4:-1 5:-1 9:-0.877551 10:-1 11:-0.971189 12:-0.950704 13:-0.95873 14:-0.997216 15:-1 16:-0.999295 17:-0.98939 
