svm_type c_svc
kernel_type rbf
gamma 0.03125
nr_class 2
total_sv 41
rho 1.8993739651913781
label 1 0
nr_sv 18 23
SV
794.5271323785222 1:-1 2:-1 3:-1  5:-1 9:-1 10:-1 11:-0.971189 12:-0.963687 13:-0.963329 14:-0.972226 15:-1 16:-0.992688 17:-0.972192 
56.922218793414139 1:-1 2:-1 3:-0.999931  5:-1 9:-1 10:-1 11:-0.968714 12:-0.972067 13:-0.971791 14:-0.949575 15:-0.4613 16:-0.989429 17:-0.973002 
1010.6782783548009 1:-1 2:-1 3:-0.997457  5:-0.999671 9:-1 10:-1 11:-0.971189 12:-0.664804 13:-0.977433 14:-0.972226 15:-1 16:-0.999577 17:-0.972462 
2048 1:-1 2:-1 3:-1  5:-1 9:-0.995146 10:-1 11:-0.971189 12:-0.99162 13:-0.988717 14:-0.973035 15:-1 16:-0.995303 17:-0.973002 
2048 1:-1 2:-1 3:-1  5:-1 9:-1 10:-1 11:-0.971189 12:-0.99162 13:-0.988717 14:-0.973035 15:-1 16:-0.99119 17:-0.973002 
2048 1:-1 2:-1 3:-1  5:-1 9:-1 10:-1 11:-0.971189 12:-0.99162 13:-0.988717 14:-0.973035 15:-1 16:-0.991779 17:-0.973002 
2048 1:-1 2:-1 3:-1  5:-1 9:-1 10:-1 11:-0.971189 12:-0.99162 13:-0.988717 14:-0.973035 15:-1 16:-0.991779 17:-0.973002 
2048 1:-1 2:-1 3:-1  5:-1 9:-1 10:-1 11:-0.971189 12:-0.99162 13:-0.988717 14:-0.973035 15:-1 16:-0.995303 17:-0.973002 
2048 1:-1 2:-1 3:-1  5:-1 9:-1 10:-1 11:-0.971189 12:-0.99162 13:-0.988717 14:-0.973035 15:-1 16:-0.99859 17:-0.973002 
2048 1:-1 2:-1 3:-1  5:-1 9:-1 10:-1 11:-0.971189 12:-0.99162 13:-0.988717 14:-0.973035 15:-1 16:-0.992952 17:-0.973002 
2048 1:-1 2:-1 3:-1  5:-1 9:-1 10:-1 11:-0.971189 12:-0.99162 13:-0.988717 14:-0.973035 15:-1 16:-0.991779 17:-0.973002 
2048 1:-1 2:-1 3:-1  5:-1 9:-1 10:-1 11:-0.971189 12:-0.99162 13:-0.988717 14:-0.973035 15:-1 16:-0.991779 17:-0.973002 
2048 1:-1 2:-1 3:-1  5:-1 9:-1 10:-1 11:-0.971189 12:-0.99162 13:-0.988717 14:-0.973035 15:-1 16:-0.994126 17:-0.973002 
1879.0688977286216 1:-1 2:-1 3:-1  5:-1 9:-1 10:-1 11:-0.971189 12:-0.994413 13:-0.988717 14:-0.973035 15:-1 16:-0.997886 17:-0.973002 
2048 1:-1 2:-1 3:-1  5:-1 9:-1 10:-1 11:-0.971189 12:-0.99162 13:-0.988717 14:-0.973035 15:-1 16:-0.996476 17:-0.973002 
2048 1:-1 2:-1 3:-1  5:-1 9:-1 10:-1 11:-0.971189 12:-0.99162 13:-0.988717 14:-0.973035 15:-1 16:-0.997065 17:-0.973002 
2048 1:-1 2:-1 3:-1  5:-1 9:-1 10:-1 11:-0.971189 12:-0.99162 13:-0.971791 14:-0.973035 15:-1 16:-0.998238 17:-0.973002 
2048 1:-1 2:-1 3:-1  5:-1 9:-1 10:-1 11:-0.971189 12:-0.99162 13:-0.988717 14:-0.973035 15:-1 16:-0.994126 17:-0.973002 
-2048 1:-1 2:-1 3:-0.999992  5:-0.986016 9:-1 10:-1 11:-0.971189 12:-0.977654 13:-0.983075 14:-0.99973 15:-1 16:-0.99988 17:-0.970842 
-2048 1:-1 2:-1 3:-1  5:-1 9:-1 10:-1 11:-0.971189 12:-0.997207 13:-0.994358 14:-0.99973 15:-1 16:-0.999986 17:-0.9973 
-2048 1:-1 2:-1 3:-0.999996  5:-0.99819 9:-1 10:-0.987421 11:-0.971204 12:-0.960894 13:-0.988717 14:-0.99973 15:-1 16:-0.999915 17:-0.930886 
-4.3730071020913712 1:-1 2:-1 3:-0.993785 4:0.203615 5:1 9:-1 10:-1 11:-0.971189 12:-0.972067 13:-0.997179 14:-0.99973 15:-1 16:-0.999989 17:-0.694654 
-2048 1:-1 2:-1 3:-1  5:-1 9:-1 10:-1 11:-0.971189 12:-0.963687 13:-0.997179 14:-0.99973 15:-1 16:-0.998164 17:-0.992171 
-95.14371304935662 1:-1 2:-1 3:-0.999072  5:-0.957884 9:-1 10:-1 11:-0.969599 12:-0.96648 13:-0.985896 14:-0.99973 15:-1 16:-0.997628 17:-0.989471 
-2048 1:-1 2:-1 3:-1  5:-1 9:-1 10:-1 11:-0.971189 12:-1 13:-1 14:-0.99973 15:-1 16:-0.999894 17:-0.99379 
-2048 1:-1 2:-1 3:-0.999994  5:-0.977133 9:-1 10:-0.945493 11:-0.96837 12:-0.938547 13:-0.96897 14:-0.99973 15:-0.96904 16:-0.999049 17:-0.956263 
-11.501633707352404 1:-1 2:1 3:-1  5:-1 9:-1 10:-1 11:-0.971098 12:-0.986034 13:-0.997179 14:-0.99973 15:-1 16:-0.999926 17:-0.884449 
-2048 1:-1 2:-1 3:-1  5:-1 9:-1 10:-1 11:-0.971189 12:-1 13:-1 14:-0.99973 15:-1 16:-0.999937 17:-0.99703 
-456.43695614402878 1:-1 2:-1 3:-1  5:-1 9:-1 10:-1 11:-0.971189 12:-1 13:-1 14:-0.99973 15:-1 16:-0.999838 17:-0.99811 
-2048 1:-1 2:-1 3:-1  5:-1 9:-1 10:-1 11:-0.971189 12:-0.98324 13:-0.988717 14:-0.994068 15:-1 16:-1 17:-1 
-2048 1:-1 2:-1 3:-1  5:-1 9:-1 10:-1 11:-0.971189 12:-0.997207 13:-0.994358 14:-0.99973 15:-1 16:-0.999986 17:-0.99757 
-2048 1:-1 2:-1 3:-0.999989  5:-0.996545 9:-1 10:-1 11:-0.97038 12:-0.955307 13:-0.991537 14:-0.99973 15:-1 16:-0.999975 17:-0.989741 
-2048 1:-1 2:-1 3:-0.999981  5:-1 9:-1 10:-0.974843 11:-0.970971 12:-0.96648 13:-0.988717 14:-0.99973 15:-1 16:-0.999242 17:-0.979752 
-2048 1:-1 2:-1 3:-1  5:-1 9:-1 10:-1 11:-0.971189 12:-0.997207 13:-0.994358 14:-0.99973 15:-1 16:-0.999986 17:-0.9973 
-197.02792771443993 1:-1 2:-1 3:-1  5:-1 9:-1 10:-1 11:-0.971189 12:-0.997207 13:-0.994358 14:-0.99973 15:-1 16:-0.299858 17:-0.99784 
-2048 1:-1 2:-1 3:-1  5:-1 9:-1 10:-1 11:-0.96531 12:-0.988827 13:-0.988717 14:-0.997843 15:-1 16:-0.999059 17:-0.99784 
-317.01015917004293 1:-1 2:-1 3:-1  5:-1 9:-1 10:-1 11:-0.971189 12:-0.988827 13:-0.788434 14:-0.998652 15:-1 16:-1 17:-1 
-2048 1:-1 2:-1 3:-1  5:-0.999835 9:-1 10:-1 11:-0.967166 12:-0.99162 13:-0.985896 14:-0.979237 15:-1 16:-0.990662 17:-0.985691 
-242.54249396752013 1:-1 2:-1 3:-1  5:-1 9:-0.970874 10:-1 11:-0.971189 12:-0.960894 13:-0.963329 14:-0.998112 15:-1 16:-0.999295 17:-0.99838 
-2048 1:-1 2:-1 3:-0.998947  5:-0.998519 9:-1 10:-1 11:-0.971189 12:-0.977654 13:-0.971791 14:-0.997303 15:-1 16:-0.997181 17:-0.99757 
-369.16063640052676 1:-1 2:-1 3:-1  5:-0.999342 9:-1 10:-1 11:-0.909299 12:-0.96648 13:-0.952045 14:-0.995686 15:-1 16:-1 17:-0.99649 
