svm_type c_svc
kernel_type rbf
gamma 0.0078125
nr_class 2
total_sv 20
rho -1.1489047810051825
label 1 0
nr_sv 10 10
SV
32768 1:-1 2:-1 3:-1 4:-0.998937 5:-1 9:-1 10:-1 11:-0.971189 12:-0.946927 13:-0.977433 14:-0.972226 15:-0.997984 16:-0.999397 17:-0.988661 
32768 1:-1 2:-1 3:-0.999842 4:-0.99681 5:-0.999671 9:-1 10:-1 11:-0.971189 12:-0.994413 13:-0.997179 14:-0.973035 15:-0.994624 16:-1 17:-0.983801 
3360.7367361110373 1:-1 2:-1 3:-0.999648 4:-0.989367 5:-0.999506 9:-1 10:-1 11:-0.971189 12:-0.997207 13:-0.994358 14:-0.973035 15:-0.986559 16:-1 17:-0.9973 
32768 1:-1 2:-1 3:-0.999579 4:-0.987241 5:-0.999506 9:-1 10:-1 11:-0.971189 12:-0.960894 13:-0.985896 14:-0.973035 15:-0.991935 16:-0.999648 17:-0.99892 
683.18704593863083 1:-1 2:-1 3:-0.998211 4:-0.819245 5:-0.999671 9:-1 10:-1 11:-0.971189 12:-0.324022 13:-0.977433 14:-0.970608 15:-1 16:-0.999834 17:-0.973272 
22903.513310051931 1:-1 2:-1 3:-1 4:-1 5:-1 9:-1 10:-1 11:-0.971189 12:-0.99162 13:-0.988717 14:-0.973035 15:-1 16:-0.99119 17:-0.973002 
1154.5230891497872 1:-1 2:-1 3:-1 4:-1 5:-1 9:-0.563107 10:-1 11:-0.971189 12:-0.99162 13:-0.983075 14:-0.973035 15:-1 16:-0.984143 17:-0.973002 
21115.785135446175 1:-1 2:-1 3:-1 4:-1 5:-1 9:-1 10:-1 11:-0.971189 12:-0.994413 13:-0.96615 14:-0.973035 15:-1 16:-0.99859 17:-0.973002 
32768 1:-1 2:-1 3:-1 4:-1 5:-1 9:-1 10:-1 11:-0.971189 12:-0.99162 13:-0.988717 14:-0.973035 15:-1 16:-0.997065 17:-0.973002 
32768 1:-1 2:-1 3:-1 4:-1 5:-1 9:-1 10:-1 11:-0.971189 12:-0.99162 13:-0.971791 14:-0.973035 15:-1 16:-0.998238 17:-0.973002 
-22552.279697465277 1:-1 2:-1 3:-0.999992 4:-0.990431 5:-0.986016 9:-1 10:-1 11:-0.971189 12:-0.977654 13:-0.983075 14:-0.99973 15:-1 16:-0.99988 17:-0.970842 
-32768 1:-1 2:-1 3:-0.999996 4:-0.997873 5:-0.99819 9:-1 10:-0.987421 11:-0.971204 12:-0.960894 13:-0.988717 14:-0.99973 15:-1 16:-0.999915 17:-0.930886 
-8272.2041973938613 1:-1 2:-1 3:-1 4:-1 5:-1 9:-1 10:-0.982935 11:-0.971189 12:-0.977654 13:-0.988717 14:-0.996225 15:-0.999328 16:-0.999031 17:-0.99973 
-81.642750706178163 1:-1 2:1 3:-0.999853 4:-0.933014 5:-0.891256 9:-1 10:-0.865828 11:-0.971189 12:-0.969274 13:-0.963329 14:-0.906431 15:-0.991263 16:-0.999866 17:-0.99433 
-32768 1:-1 2:-1 3:-1 4:-1 5:-1 9:-1 10:-1 11:-0.971189 12:-0.98324 13:-0.988717 14:-0.994068 15:-1 16:-1 17:-1 
-32768 1:-1 2:-1 3:-1 4:-1 5:-1 9:-1 10:-1 11:-0.96531 12:-0.988827 13:-0.988717 14:-0.997843 15:-1 16:-0.999059 17:-0.99784 
-32768 1:-1 2:-1 3:-1 4:-0.997873 5:-0.999835 9:-1 10:-1 11:-0.967166 12:-0.99162 13:-0.985896 14:-0.979237 15:-1 16:-0.990662 17:-0.985691 
-17295.698174449451 1:-1 2:-1 3:-1 4:-1 5:-1 9:-0.970874 10:-1 11:-0.971189 12:-0.960894 13:-0.963329 14:-0.998112 15:-1 16:-0.999295 17:-0.99838 
-1015.920496682779 1:-1 2:-1 3:-0.999931 4:-0.997873 5:-0.999835 9:-1 10:-1 11:-0.96531 12:-0.972067 13:-0.977433 14:-0.997843 15:-1 16:-0.999884 17:-0.99946 
-32768 1:-1 2:-1 3:-0.998947 4:-0.99362 5:-0.998519 9:-1 10:-1 11:-0.971189 12:-0.977654 13:-0.971791 14:-0.997303 15:-1 16:-0.997181 17:-0.99757 
